{"Q_network":{"beta1":0.9,"beta2":0.999,"bp_method":1,"clip_value":inf,"epsilon":0.00000001,"layer_structure":[4,16,16,2],"learning_rate":0.001,"m_biases":[[[0.0773101250316748],[-0.10615419313429],[0.18096770414476],[-0.1708098590553],[-0.04542134480202],[-0.00188373590517],[0.00946423882215093],[-0.02610905709785],[0.13911727821101],[0.144494549086041],[0.105115920169834],[-0.02071897193796],[-0.20955919944932],[-0.00054868061002],[-0.00315100233055],[-0.06512306260578]],[[0.0000422773375150611],[-0.00017780125388],[-0.00764131311125],[-0.00949751504775],[-0.00759686095428],[0.0000258945126024506],[0.0484927946071913],[0.000358633694690861],[0.00488411327104115],[0.000301686878365705],[-0.00018806887549],[-0.00886443014286],[-0.00003972723925],[0.0000231508585125036],[-0.0402835207523],[-0.00016393151857]],[[-0.17674229351909],[0.116015318586368]]],"m_weights":[[[16.1976904215996,9.49996997721553,0.00529786599237499,-0.01103691845257],[-14.2691457244513,-8.34660862549775,-0.00362011069472,0.00491383707457716],[39.0270234895293,22.5957837547785,0.0123572972774574,-0.0262069192148],[-52.1813736800511,-31.6672217328581,-0.0191486888932,0.0505336987167137],[-9.94069827668317,-5.66247329026771,-0.004017806411,0.00412443086778721],[-0.02122762580157,0.0251322200847063,-0.00036158673139,-0.00158528864634],[0.300752399115839,0.201350141603945,0.00116144328735805,0.000838629671178913],[-13.5964908756197,-7.84014191816851,-0.00705197641119,0.0093913182129506],[27.9183987518137,16.1422926618054,0.00862341136133986,-0.01671424276834],[14.1344873980739,7.27376553342752,0.00193992726871563,0.00542002731134297],[17.811411168301,10.8955812335775,0.00609729371544188,-0.01116541050617],[-0.06032649098748,0.361646297330275,0.000552429825500727,-0.00510354111858],[-50.4288204738501,-28.5638302744232,-0.01671043603045,0.0324232278805919],[-0.17172481631648,-0.24124171470284,-0.00021792154239,0.000425511500865094],[-0.47666678351627,-0.32407603452615,0.000164430977784818,0.000203019736138113],[-8.14246065067605,-4.11503690682783,-0.0027397246576,-0.00491701771207]],[[0.00361142869066427,0.000448618408874878,0.00399436772467874,0.000582274868527673,0.00368578773784141,-0.00107510547218,-0.00067054765204,-0.00042162004702,0.0045176594532307,-0.00070049227001,0.00677741695559567,-0.00117163848624,0.000505426284329225,-0.00037742463004,-0.00006709106164,0.0033842793938292],[-0.0057196279484,-0.00193207704574,-0.00725804940243,-0.00195620097676,-0.00697578613124,0.00126206987714201,0.000540172127580563,-0.00073838400065,-0.00725844412713,-0.00035795383177,-0.01124996438465,0.00153629433252334,-0.00192620353391,0.000692454047801636,0.00028208704108467,-0.00652683466154],[-0.83261998470486,-0.07989747175508,-0.90397935680652,-0.11492178785154,-0.82880117054781,0.257034852597442,0.164984437401369,0.124369091183073,-1.03959461191506,0.189836236780327,-1.55171698790358,0.276771849008297,-0.09520272870861,0.0851782077172241,0.0120215980158137,-0.75879049394033],[-1.48774612721904,-0.09689317731068,-1.58011724640562,-0.16646718955417,-1.43796172064529,0.475539824090371,0.314355144854916,0.274868712772687,-1.85371128767507,0.394159634914361,-2.75379877725437,0.506512472950533,-0.12781378705429,0.148708347328222,0.0149477268625162,-1.31182085058223],[-0.61392380628593,-0.08070108615163,-0.68257133880237,-0.10251307087471,-0.63056319122969,0.181393916360162,0.111596109265068,0.0663031017515607,-0.76837857476621,0.113261939982251,-1.15397866606639,0.198024898357711,-0.08987977626994,0.0645381867676181,0.0120923841040754,-0.57933039818116],[0.0178781838369449,0.000182549154172248,0.0182658910641947,0.00119424632529669,0.0163980432593025,-0.00608303420199,-0.00421918282899,-0.0044396456602,0.0221942913198022,-0.00592935559905,0.0326577546250972,-0.00635752557134,0.000646494150139641,-0.00170852442307,-0.00003629566265,0.0148628633315754],[2.64591842620397,0.540668656410369,3.01813261002004,0.665454091173476,2.93278768685375,-0.68120008973298,-0.49923140013683,-0.11373790181145,3.3111987681358,-0.35520812190021,4.96047741817059,-0.7632732805485,0.609261314955927,-0.26877655698119,-0.05949800764654,2.72974860684552],[0.0211512342116768,0.00324167348333111,0.0249769394102352,0.00478550580885648,0.0231222384721733,-0.00560469117081,-0.00539360046334,-0.00152826854586,0.0265569906858907,-0.00321914334934,0.039266692267724,-0.00679436882062,0.00409414785721145,-0.00231222630965,-0.00046505106502,0.0215819095917022],[-0.55923145625999,0.0573686353506271,-0.52402689736262,0.0156566092727029,-0.45460040488242,0.213003735632939,0.159047436233413,0.211370619750106,-0.68890356512175,0.261090273136572,-0.99438103628519,0.215416699229321,0.0376942122063451,0.0485950123040115,-0.0079358783186,-0.40518435099088],[0.0101373888200425,0.00328816338676091,0.0127319419890068,0.00333761053083484,0.0122198943180053,-0.002285598694,-0.00101037294557,0.00114778459106994,0.012852462634857,0.000465646759252226,0.0198979550096016,-0.00275500346426,0.00328030879346769,-0.00121545693141,-0.0004799308097,0.0114181276099798],[-0.00196484729511,-0.00131364973169,-0.00418676829308,-0.00138772533933,-0.00364422512183,0.000429449565348639,0.0000889118061395967,-0.00165786243021,-0.00266244159003,-0.00199078900699,-0.00470337755661,0.00180469250132692,-0.0013445479741,0.00134000504284365,0.000387017198536148,-0.003478842375],[-1.15793623579083,-0.10342106866048,-1.21013278198255,-0.14637036606167,-1.13831077688687,0.365348061358544,0.231587212191098,0.187422610339091,-1.44587124872893,0.282827858637026,-2.18038685652047,0.387425093471703,-0.12421793073012,0.114607410714142,0.0145966312692013,-1.03690998105553],[0.00114799566329829,-0.00107821724611,0.00255168187388708,-0.00045666548411,0.000438166951772369,-0.00051168800602,-0.00081588927696,-0.00124292114964,0.00129485499769411,-0.0011888289393,0.000268903198245626,-0.00067393534682,-0.0008926650198,-0.0001973241581,0.000100316485461342,0.000523585905174195],[0.000905890711564156,0.000245794514207304,0.00111188182717969,0.000268504193311194,0.00105958781152656,-0.00021816881591,-0.00014253584533,0.000048162482227995,0.00114415764710585,-0.00001783319382,0.00174628112391976,-0.0002623271583,0.000256308858651319,-0.00010530087343,-0.00003540902581,0.000989240240351769],[-0.04855062322766,-0.45691813329423,-0.36859520658442,-0.45063828908133,-0.5366834860536,-0.12915925972961,-0.07797203662276,-0.46264809383078,-0.08893235343716,-0.43930738191095,-0.21428149465184,-0.08130608157531,-0.46654229441663,0.0275630277317548,0.0454398799996809,-0.55229554089804],[-0.00727987526188,-0.00138430531489,-0.00912212688104,-0.00221835168152,-0.00859559869735,0.00178807459764428,0.0027831268607818,0.000209638587101307,-0.00913458358911,0.000877144425460584,-0.01319581576789,0.00240826978406232,-0.00189207718077,0.000832025519019495,0.000183019898570726,-0.00813860716748]],[[9.42762284760817,1.73198621603047,-0.5082939509592,-1.79241469853701,1.16496824944093,6.32715712247724,-34.6677354843975,7.11425623789776,-6.65234924988182,1.09956339613293,0.8642746441164,-2.05876794651501,0.537393017149401,1.15011147033545,14.4372314096819,0.195942844882623],[-2.93501977168272,-0.72907463225045,5.62480314061594,4.58263178561547,3.5779789736203,-1.80803034395713,4.44372746374966,-1.53892635997253,2.33422398600285,-0.44148440079547,-0.17357730126881,3.67432409572668,-0.39617346652707,-0.36971423163448,2.6922029194463,-0.10616426143885]]],"network":[{"activation":"LEAKYRELU","bias":[[-4.75984504982826],[9.3234203383916],[7.2724930104576],[11.324067644614],[10.1773421998894],[8.61132998152338],[0.375045411194743],[11.5416251814883],[-3.96878425557138],[11.4456174371131],[-4.58185079992908],[5.35480385704198],[10.9881987202555],[-5.62170098053094],[-9.74885241399971],[11.305372706364]],"weights":[[0.153239899267293,-0.01890894069937,9.85136715067035,2.55235293962546],[0.0871681981309227,-0.12717677462329,-13.7176786436001,-2.57514134552844],[0.0533712946865411,0.116830424355813,18.4448258359941,4.88848877850238],[0.020822458276884,-0.02534369220318,-12.1755311150814,-4.02450023663592],[0.145660802425675,-0.04487552875788,-12.7916812776276,-2.7071982864122],[-0.34174159545533,0.130191558959604,5.37630012200989,1.78466023032814],[-0.11568908928929,-0.08887293970183,22.6283927365295,9.73805496923946],[-0.00825232821461,-0.03907588376025,2.52559807182925,0.383152597271747],[0.187485757068549,-0.02994803450071,11.8850663386687,2.7138384986842],[-0.04444259468555,0.000367607839555778,13.5231238654338,3.24794866687877],[0.372054396185497,-0.20189696985124,12.3477109334904,2.40141631232183],[-0.31497861365936,-0.01925193199911,-5.60148752396451,-2.24437298864861],[0.0434535112273901,-0.06328804003462,-14.0895443973476,-3.67954942469138],[-0.05098460392254,-0.1105612242071,-13.9522042244942,-8.67040268864684],[-0.00555252741306,-0.00992117602956,-19.9212203618911,-7.85168607659337],[0.12407786733645,-0.0323031833994,-12.0943028119198,-3.52842918592714]]},{"activation":"LEAKYRELU","bias":[[2.72335491886254],[-3.77918315441903],[11.4368194034459],[10.3530373231594],[10.4435444915225],[0.485034845303236],[-2.26207066059331],[3.42958303088729],[8.90506823037024],[-4.76092241540109],[-0.14337439299361],[10.9106922299832],[-3.68814525274399],[-0.2612848073954],[-2.31663462646343],[1.59768631135926]],"weights":[[-0.13018202850265,-5.68146286385048,1.27740251259717,-3.77819844624395,-3.53728914913851,-1.04676878415323,1.69494747781708,1.8384886572617,-1.88403799448025,-0.10263290362519,-0.13649128336647,-3.05157713067891,-10.7065187528449,-0.42758352665744,-3.54632736414836,-3.77624037607446],[-0.13994263118802,-0.7180149319593,-1.97036088608949,0.497290491216966,-1.17247781685034,-1.27350017358588,-0.51101616656482,0.411940653744541,1.17244178105082,-1.2566540482498,-0.05363264380482,-0.79399468763217,0.278885896914708,0.974757702611135,3.33548344937055,-0.28162909278479],[-0.27119571732654,-0.01527877834759,0.0338853899465099,0.476797841765612,-0.27399120975496,0.129030404672688,-0.72760868772961,1.77193619528913,-0.31611950491951,0.795046117046956,0.197807679198401,0.0262299715658203,0.55721401234509,-0.39400074581545,-0.4842791552934,-0.16830304789475],[-0.08644489994535,0.144785420889055,0.0769084667040496,1.0210547897083,-0.36898688577909,-0.07302907731489,-0.7952750493671,1.31616732638068,-0.22728185337288,0.557016073153937,0.0169720358621875,-0.55491339324794,0.328045636081608,-0.76684282105009,-1.01670247994708,-0.22877961864476],[0.30057437013393,-0.76113838543028,-0.13826587515145,0.400029518802256,-0.08824495267596,-0.21143165725575,-0.49809069623939,1.94076603680973,0.120324033270571,0.355587970223979,-0.40907417345796,0.122150807386579,0.240702728516145,0.300991870484025,-0.36082550163359,0.0163007939985127],[-2.1454113513259,-0.29255924204685,-3.44037958722984,1.05441502342689,1.19686573251202,-3.72679578496898,-4.11036753593739,-1.15361070365119,-0.11679912427468,-6.08789203923726,-3.28291575730261,-1.03561027064009,1.00539641183563,1.32735947118268,3.59622002718984,0.271201201614291],[0.873988750376476,-0.81835806397864,1.87664784876053,-1.18858615992613,-0.43389748644375,0.558474335582203,0.841764492066999,1.75747213244537,1.05582688632659,1.75338887474512,1.13695124789375,-0.27654036233358,-1.23301464810992,-1.64118371085529,-2.13750433400611,-0.28195926135641],[-0.19504067431907,-2.44463247497417,0.560854092292849,-3.75952796648098,-5.47717559565138,-0.78349956628796,2.42859870250079,1.85478450675645,-0.39724250129612,1.60670775238119,0.775525865165319,-1.60952660753006,-4.62361640077061,-3.04232395243698,-5.55559347789577,-3.30235063334217],[0.0485695088232019,-0.36214038067741,-0.01795272700576,0.473129693353275,-0.36831179183693,-0.30347617889572,-0.20455531997598,1.23841088253058,0.365123726437732,-0.25040245061432,0.348352029250473,-0.08573251257338,0.528613635808386,0.105123534727522,-0.47345106023344,-0.35148550508429],[-0.11696836571603,0.132330278316874,-0.14729455931587,-0.6026309712854,0.548381705890509,-0.67505134167338,0.681870651480089,-0.89760394227357,0.460188305520786,-0.04147494741547,-0.46554720983558,0.0686102973418298,-0.83048458164043,0.521445394634521,0.625500862920586,-0.97617227647827],[-0.08234661422826,0.330914593003457,-0.91944185969153,0.273137106911421,0.7859101646345,0.103105337320483,0.195496942784761,-1.22127958908771,1.04093133365873,0.125001816870967,-0.6671645811076,0.000458144645647688,0.39328693426454,0.689054226912477,-0.45387866628619,-0.97707386480717],[0.0120329053256452,-0.64928528559138,-0.22668454255238,0.130631161398178,0.212009017463568,0.203116856116046,-0.47159710280919,1.06045941272381,-0.44654738658227,0.636082493912272,0.263074007738127,-0.07572555263309,0.473439292480725,0.0515176371627661,-0.56078265307623,-0.01154828614412],[0.4429017519077,-0.8097047528361,-0.02779155219379,0.0967488211953821,0.0158329898876425,-0.03307545907551,0.789686897347335,-0.92643151076707,0.379108628502781,-0.9342054550544,-0.54527523253431,0.179554135982882,0.175673477568905,-0.53308629866454,-0.34394073381914,-0.2660185388355],[-0.51312032714689,-0.22972859049209,-0.29875208279912,-0.77697763238273,-0.15765270122481,-1.07110412612765,1.25857568056007,-0.91625824713604,-0.17410046102241,0.358209360903246,-0.0360935407688,-1.10243456174368,-0.30073042171983,-0.75767815156273,1.85126146488785,-0.29405928689238],[-0.78537771220136,1.72025711832636,-2.30095588792458,2.27187082196804,0.335232105349606,-0.09429209307973,-3.75443593944528,1.98681589084663,-2.17832583177306,-2.06152826330321,-1.51594167592859,0.939986932379917,3.42020467202682,1.41614766908468,4.8958838397426,1.08034942412487],[0.0910693137462163,-0.18826521710749,0.0372770947027102,-0.25197326671724,-1.38569950113583,-0.52833727671047,0.0381993313908498,1.33600882719428,-0.48534628990208,0.340483621663997,0.531031586210468,-1.33756570801575,-1.48887162095631,1.45666384660757,1.48833470349958,0.860039351104788]]},{"activation":"LINEAR","bias":[[8.1092766416973],[8.52118301793718]],"weights":[[-0.05407348435998,0.0842776000008136,0.124549194553436,0.223122667761881,0.091751950853379,-0.26889330083646,-0.3970733237974,-0.32073511727502,0.0847218572408105,-0.14995409085505,0.0256336003568329,0.175457508200067,-0.00715336190388,-0.01350884565642,-0.14226471215626,0.111261594634336],[-0.04499744783596,-0.02379451909195,0.120904178194166,0.254374694794357,0.0708745755931858,-0.38680649314418,-0.36638142281581,-0.18952559520166,0.17024791393573,0.0329002266604376,-0.19036949102321,0.181114583772825,-0.08440806350492,0.000555111623934289,-0.18583941419089,-0.00310202958584]]}],"t":1480908,"use_amsgrad":false,"v_biases":[[[2.77923867402076],[6.64370292796986],[19.3609433845558],[28.0641082328126],[18.4481343541914],[5.27632154441232],[13.3691572876897],[8.67541043821975],[8.61337037257737],[12.8398103322107],[6.1653208804268],[1.58981814500765],[52.6292965948456],[1.76761333268017],[17.5846244931754],[4.65312885797508]],[[0.0000517131882413049],[0.00186543715758228],[0.616492587603656],[1.99003960939309],[0.234662462936171],[0.392067218674886],[6.86572388421113],[0.593965381713864],[1.26502918243434],[0.0000534941305004054],[0.0205866653199447],[1.75244348024139],[0.0000809410639224199],[0.00304482221933676],[0.165778770896039],[0.108899797112911]],[[20.9486566850178],[33.1709032697976]]],"v_weights":[[[130638.845851008,85620.1133797673,0.141704831872341,5.17377761828686],[81820.2769606607,307453.449026345,0.853853018300655,54.1680825972044],[754751.886739378,590469.845820823,1.29970401514484,58.2564741879671],[1455724.01893958,848407.53843944,1.00644043524715,16.1588128721092],[55364.1390372186,957649.207239014,2.73436160206999,181.124684808758],[7972.06102376165,166669.584539603,0.861689412344014,20.3329077231188],[46393.1918635578,591382.576609917,2.07177759363656,95.243396965776],[183473.538774611,263113.033528667,0.979040043679986,25.7082656136582],[418784.490344676,271980.068905323,0.41997942587014,15.3187106419568],[109914.960313946,476726.024534015,1.62110875139968,94.2902439297179],[76299.7790148006,204268.310406443,0.892720613922357,15.0381405667253],[2151.74993255242,81230.3031229268,0.245865734237712,15.6019706202329],[1439160.19102093,2155783.71735802,4.93756899326342,287.390089367083],[7035.93706909115,69607.704298492,0.235315729191695,7.98413292814657],[78239.2664556477,542953.591593538,2.83062962879207,63.6595850362395],[24513.5106199829,258015.736649959,0.702490324369904,45.7473729428673]],[[0.0115773355228963,0.00496647244225191,0.0644992991226735,0.00451507436766567,0.014268781997637,0.017126878485713,0.00862366715805292,0.00383430471130275,0.0168114177673988,0.0138055346599316,0.0417418078104924,0.00658363149543173,0.00280206874443351,0.00124065805886142,0.000345190783230239,0.0169837790859745],[0.0122235318842588,0.144153229351844,0.184550434252077,1.10663207982861,0.350221558683684,0.869443538859092,0.0560193836265653,0.0688853120164062,0.0187917792411568,0.0127856146990312,0.0797458296549411,0.518993453162854,0.479590294153498,0.0945849383625886,0.548248295688839,0.736059518374874],[344.653340497283,249.198985114005,518.03238655687,116.104045859309,479.336381345939,143.151165830616,505.23532561992,101.349217586601,518.694202402325,99.9845742154565,1549.17554205712,393.41713223036,130.631901163625,56.1328424808758,14.2480704249413,532.579799316065],[1417.99815669133,395.819781116763,2864.87542088797,403.688033162505,1876.69320742405,87.7657999852968,291.155146863801,133.675997938801,2066.43747950905,124.231601538081,4123.8067476153,286.168194562912,341.151169665138,88.0986924673156,46.637472929326,2218.32859343374],[113.218593935334,89.9690412165634,225.060131122297,51.2987573669101,172.676262792237,70.746252213807,157.453673773089,36.7359340309427,165.396303100763,33.0167625139769,376.383644606343,190.449891939097,55.6084749702438,29.3457943595845,5.16683385627196,196.228366993116],[1.57376889499756,373.639031918389,41.2057115768926,196.38410449766,161.710858467257,42.3014626593166,6.32833303803145,68.0396322572233,2.08326961805964,1.45020184247141,28.6280806913438,301.254233694847,262.061531688186,133.127548121005,83.4093906037325,130.768016589898],[5379.05390583675,1798.00120710106,8609.7561163907,987.963941677687,6685.71387882365,511.125949003604,4482.32305333356,752.69537591459,7969.48795413016,929.193508836593,20742.2732447642,1323.59510835557,914.140487199316,133.310918912302,57.1682621204246,7696.29425074151],[17.585749478937,454.102734934763,8.92513272718486,0.535958821149705,46.4048272145223,6.94004181311169,2219.30805777031,288.352549521863,56.7474102263449,360.79881650947,1146.20051590124,189.506198033074,61.0093435078423,1.32114034284465,10.1980645607451,4.16250257771017],[1082.67027392124,279.104445607526,1838.15088551591,209.72445590523,1360.42318440541,58.5010638721627,290.207404200186,76.3305553924767,1589.39209446189,81.4558713900411,3643.68705937491,183.141048715471,202.401787622246,42.6195429329337,20.6691030244896,1589.83352918499],[0.0204418887648838,0.029430491393637,0.0264112234976538,0.0067418868372742,0.029215232675164,0.014173804016512,0.110915250240842,0.0129660436989717,0.0346967296976043,0.0154459851391751,0.162093942200107,0.0449858734000296,0.0120317177445541,0.00632377155641245,0.00074263546449989,0.0257538838793901],[0.526853403674174,15.1498393685,0.43793752551647,4.34878606846467,4.43100311324147,68.5981893569885,40.4189009583524,11.5435754197897,0.923978201130709,7.38587793479002,7.01985031849451,150.276312717823,8.60235727155216,17.6093025881924,0.339244850843389,2.44878622409259],[1280.04927940621,563.249714604995,2041.23741221772,296.452608388695,1652.55675933273,315.369594486807,974.202548515921,200.048731579429,1895.17244867672,205.308938416631,4882.37140119607,837.961290459058,322.287606120056,121.741414714802,34.7120315641285,1874.07774785183],[0.0481790269039058,0.00448807442210101,0.162111692235252,0.0121133628197642,0.0446317253680659,0.506187208613677,0.112888314904842,0.016423644612848,0.0622546560577574,0.00716795753755559,0.0942700675700905,0.904620417269281,0.00425660641926954,0.0555796229499177,0.00136575468094195,0.0595838339041696],[0.0781940882034734,2.12440312822706,0.0204770257992652,0.00170916137016083,0.291381783030495,0.0404624543607878,10.3461780463732,1.25727207003427,0.28777617950513,1.637771313896,5.28355632008077,1.17947161578003,0.311325636470954,0.00903614700214786,0.0537557259878951,0.0263411866897276],[3.94228461260188,115.132444221617,15.4024595020731,58.3453314358081,57.4213981849286,232.867370882247,55.8378583683663,38.6205267092251,6.58833829576951,13.5410494536476,39.0710100966781,548.190731864025,79.6337642661228,74.4770150706702,19.7222983991633,50.5116103855505],[68.3029114183465,85.8812040813294,43.0655829106588,2.17154493958838,52.1097228594374,2.28459387625166,283.438373463055,43.4496910629918,107.600628253044,49.9600656558203,564.440053043202,22.1075815251977,13.7282885485347,0.964929786282479,2.18749814323985,47.5471667530542]],[[53573.3282377087,1875.77993680487,23610.9975257696,3880.09157972044,6499.95966144445,44962.6822384919,429851.54779761,86612.6155111724,22843.2055401633,387.167110891169,3173.91130809099,10556.6781413517,316.154816971183,6304.71389016127,423824.516626156,2071.67907962737],[77387.8292003024,3447.88983225044,9214.46020290911,8042.88292660629,3883.44953853244,35838.3383852262,781306.586069018,43766.3703279473,33024.7516244171,1075.38323839718,815.256045495928,10258.4214026193,289.103520015632,1132.83149615208,81404.6038490669,1140.11858885256]]]},"action_space":2,"automatic_decay":true,"batch_size":196,"discount_factor":0.95,"exploration_decay":0.9995,"exploration_probability":0.0228467862979011,"final_learning_rate":0.0001,"is_logging":false,"learning_rate":0.001,"log_count":0,"log_file":null,"lr_decay_rate":1,"max_memory_size":14400,"max_steps":128,"min_exploration_probability":0.01,"state_space":4,"target_Q_network":{"beta1":0.9,"beta2":0.999,"bp_method":0,"clip_value":inf,"epsilon":0.00000001,"layer_structure":[4,16,16,2],"learning_rate":0.001,"m_biases":[],"m_weights":[],"network":[{"activation":"LEAKYRELU","bias":[[-4.75984504982826],[9.3234203383916],[7.2724930104576],[11.324067644614],[10.1773421998894],[8.61132998152338],[0.375045411194743],[11.5416251814883],[-3.96878425557138],[11.4456174371131],[-4.58185079992908],[5.35480385704198],[10.9881987202555],[-5.62170098053094],[-9.74885241399971],[11.305372706364]],"weights":[[0.153239899267293,-0.01890894069937,9.85136715067035,2.55235293962546],[0.0871681981309227,-0.12717677462329,-13.7176786436001,-2.57514134552844],[0.0533712946865411,0.116830424355813,18.4448258359941,4.88848877850238],[0.020822458276884,-0.02534369220318,-12.1755311150814,-4.02450023663592],[0.145660802425675,-0.04487552875788,-12.7916812776276,-2.7071982864122],[-0.34174159545533,0.130191558959604,5.37630012200989,1.78466023032814],[-0.11568908928929,-0.08887293970183,22.6283927365295,9.73805496923946],[-0.00825232821461,-0.03907588376025,2.52559807182925,0.383152597271747],[0.187485757068549,-0.02994803450071,11.8850663386687,2.7138384986842],[-0.04444259468555,0.000367607839555778,13.5231238654338,3.24794866687877],[0.372054396185497,-0.20189696985124,12.3477109334904,2.40141631232183],[-0.31497861365936,-0.01925193199911,-5.60148752396451,-2.24437298864861],[0.0434535112273901,-0.06328804003462,-14.0895443973476,-3.67954942469138],[-0.05098460392254,-0.1105612242071,-13.9522042244942,-8.67040268864684],[-0.00555252741306,-0.00992117602956,-19.9212203618911,-7.85168607659337],[0.12407786733645,-0.0323031833994,-12.0943028119198,-3.52842918592714]]},{"activation":"LEAKYRELU","bias":[[2.72335491886254],[-3.77918315441903],[11.4368194034459],[10.3530373231594],[10.4435444915225],[0.485034845303236],[-2.26207066059331],[3.42958303088729],[8.90506823037024],[-4.76092241540109],[-0.14337439299361],[10.9106922299832],[-3.68814525274399],[-0.2612848073954],[-2.31663462646343],[1.59768631135926]],"weights":[[-0.13018202850265,-5.68146286385048,1.27740251259717,-3.77819844624395,-3.53728914913851,-1.04676878415323,1.69494747781708,1.8384886572617,-1.88403799448025,-0.10263290362519,-0.13649128336647,-3.05157713067891,-10.7065187528449,-0.42758352665744,-3.54632736414836,-3.77624037607446],[-0.13994263118802,-0.7180149319593,-1.97036088608949,0.497290491216966,-1.17247781685034,-1.27350017358588,-0.51101616656482,0.411940653744541,1.17244178105082,-1.2566540482498,-0.05363264380482,-0.79399468763217,0.278885896914708,0.974757702611135,3.33548344937055,-0.28162909278479],[-0.27119571732654,-0.01527877834759,0.0338853899465099,0.476797841765612,-0.27399120975496,0.129030404672688,-0.72760868772961,1.77193619528913,-0.31611950491951,0.795046117046956,0.197807679198401,0.0262299715658203,0.55721401234509,-0.39400074581545,-0.4842791552934,-0.16830304789475],[-0.08644489994535,0.144785420889055,0.0769084667040496,1.0210547897083,-0.36898688577909,-0.07302907731489,-0.7952750493671,1.31616732638068,-0.22728185337288,0.557016073153937,0.0169720358621875,-0.55491339324794,0.328045636081608,-0.76684282105009,-1.01670247994708,-0.22877961864476],[0.30057437013393,-0.76113838543028,-0.13826587515145,0.400029518802256,-0.08824495267596,-0.21143165725575,-0.49809069623939,1.94076603680973,0.120324033270571,0.355587970223979,-0.40907417345796,0.122150807386579,0.240702728516145,0.300991870484025,-0.36082550163359,0.0163007939985127],[-2.1454113513259,-0.29255924204685,-3.44037958722984,1.05441502342689,1.19686573251202,-3.72679578496898,-4.11036753593739,-1.15361070365119,-0.11679912427468,-6.08789203923726,-3.28291575730261,-1.03561027064009,1.00539641183563,1.32735947118268,3.59622002718984,0.271201201614291],[0.873988750376476,-0.81835806397864,1.87664784876053,-1.18858615992613,-0.43389748644375,0.558474335582203,0.841764492066999,1.75747213244537,1.05582688632659,1.75338887474512,1.13695124789375,-0.27654036233358,-1.23301464810992,-1.64118371085529,-2.13750433400611,-0.28195926135641],[-0.19504067431907,-2.44463247497417,0.560854092292849,-3.75952796648098,-5.47717559565138,-0.78349956628796,2.42859870250079,1.85478450675645,-0.39724250129612,1.60670775238119,0.775525865165319,-1.60952660753006,-4.62361640077061,-3.04232395243698,-5.55559347789577,-3.30235063334217],[0.0485695088232019,-0.36214038067741,-0.01795272700576,0.473129693353275,-0.36831179183693,-0.30347617889572,-0.20455531997598,1.23841088253058,0.365123726437732,-0.25040245061432,0.348352029250473,-0.08573251257338,0.528613635808386,0.105123534727522,-0.47345106023344,-0.35148550508429],[-0.11696836571603,0.132330278316874,-0.14729455931587,-0.6026309712854,0.548381705890509,-0.67505134167338,0.681870651480089,-0.89760394227357,0.460188305520786,-0.04147494741547,-0.46554720983558,0.0686102973418298,-0.83048458164043,0.521445394634521,0.625500862920586,-0.97617227647827],[-0.08234661422826,0.330914593003457,-0.91944185969153,0.273137106911421,0.7859101646345,0.103105337320483,0.195496942784761,-1.22127958908771,1.04093133365873,0.125001816870967,-0.6671645811076,0.000458144645647688,0.39328693426454,0.689054226912477,-0.45387866628619,-0.97707386480717],[0.0120329053256452,-0.64928528559138,-0.22668454255238,0.130631161398178,0.212009017463568,0.203116856116046,-0.47159710280919,1.06045941272381,-0.44654738658227,0.636082493912272,0.263074007738127,-0.07572555263309,0.473439292480725,0.0515176371627661,-0.56078265307623,-0.01154828614412],[0.4429017519077,-0.8097047528361,-0.02779155219379,0.0967488211953821,0.0158329898876425,-0.03307545907551,0.789686897347335,-0.92643151076707,0.379108628502781,-0.9342054550544,-0.54527523253431,0.179554135982882,0.175673477568905,-0.53308629866454,-0.34394073381914,-0.2660185388355],[-0.51312032714689,-0.22972859049209,-0.29875208279912,-0.77697763238273,-0.15765270122481,-1.07110412612765,1.25857568056007,-0.91625824713604,-0.17410046102241,0.358209360903246,-0.0360935407688,-1.10243456174368,-0.30073042171983,-0.75767815156273,1.85126146488785,-0.29405928689238],[-0.78537771220136,1.72025711832636,-2.30095588792458,2.27187082196804,0.335232105349606,-0.09429209307973,-3.75443593944528,1.98681589084663,-2.17832583177306,-2.06152826330321,-1.51594167592859,0.939986932379917,3.42020467202682,1.41614766908468,4.8958838397426,1.08034942412487],[0.0910693137462163,-0.18826521710749,0.0372770947027102,-0.25197326671724,-1.38569950113583,-0.52833727671047,0.0381993313908498,1.33600882719428,-0.48534628990208,0.340483621663997,0.531031586210468,-1.33756570801575,-1.48887162095631,1.45666384660757,1.48833470349958,0.860039351104788]]},{"activation":"LINEAR","bias":[[8.1092766416973],[8.52118301793718]],"weights":[[-0.05407348435998,0.0842776000008136,0.124549194553436,0.223122667761881,0.091751950853379,-0.26889330083646,-0.3970733237974,-0.32073511727502,0.0847218572408105,-0.14995409085505,0.0256336003568329,0.175457508200067,-0.00715336190388,-0.01350884565642,-0.14226471215626,0.111261594634336],[-0.04499744783596,-0.02379451909195,0.120904178194166,0.254374694794357,0.0708745755931858,-0.38680649314418,-0.36638142281581,-0.18952559520166,0.17024791393573,0.0329002266604376,-0.19036949102321,0.181114583772825,-0.08440806350492,0.000555111623934289,-0.18583941419089,-0.00310202958584]]}],"t":0,"use_amsgrad":false,"v_biases":[],"v_weights":[]},"target_update_frequency":512,"trainings_done":0}